{"layer_0": {"activator": "softmax", "weights": [[-0.15022862631317194, -0.09543986671597132, -0.04182517757388466, 0.0017301957035268515, -0.03221178014008517, 0.16589966488354668, 0.1436509120309005, 0.1456161173514848, 0.004811546137533284, 0.12624437085241833, 0.02222275950441481, 0.028722852098983766, -0.03739560922201291, -0.06110865447614189, 0.155201872502733, 0.03563022993961685, 0.20641294674662378, -0.09129251845083733, -0.10547788886492292, -0.03585111527677228, 0.1801955524123167, -0.2021365665096664, 0.10246197194813982, -0.014266905460877697, -0.030566954587574902], [0.18086994601998907, 0.029153073147380835, -0.03854274563791034, 0.12359316845585483, 0.03347518869922693, -0.04400567220832267, 0.13205786328337335, -0.10602212752436825, -0.3707712638012503, 0.02510458596988329, -0.05599288819576714, 0.004927951183224609, -0.03882549933166172, 0.10097746633100955, -0.08077669819865133, 0.02470903992707118, -0.04561410803764985, 0.1365037446578174, -0.05105967342911798, -0.03415927993722474, -0.0016084046847364966, 0.06543058481021509, 0.10892261941060166, -0.07047791848446518, 0.13931734873525042], [0.1102382961741684, 0.20508805138859798, 0.10815059164106935, -0.034976632143277696, -0.013392686537700213, 0.001623962573132034, 0.23651788662001316, 0.05164897557355398, -0.08264549494750763, 0.1141748694180505, -0.13235480196503738, 0.10839557200571208, -0.10397399728593691, 0.013240886488808954, -0.13221756546136698, -0.005791040513597152, 0.12081863102746124, -0.031754290618484414, -0.09872600836673978, -0.04367909912477426, 0.08640548650953776, 0.16697054003410097, -0.08096396998821033, -0.01931379026702389, -0.07042143962884576]], "biases": [[8.673617379884014e-19, 8.673617379884014e-19, 8.673617379884014e-19, 8.673617379884014e-19, 8.673617379884014e-19, 8.673617379884014e-19, 8.673617379884014e-19, 8.673617379884014e-19, 8.673617379884014e-19, 8.673617379884014e-19, 8.673617379884014e-19, 8.673617379884014e-19, 8.673617379884014e-19, 8.673617379884014e-19, 8.673617379884014e-19, 8.673617379884014e-19, 8.673617379884014e-19, 8.673617379884014e-19, 8.673617379884014e-19, 8.673617379884014e-19, 8.673617379884014e-19, 8.673617379884014e-19, 8.673617379884014e-19, 8.673617379884014e-19, 8.673617379884014e-19]], "n_inputs": 3, "n_neurons": 25}, "layer_1": {"activator": "softmax", "weights": [[-0.11718525969301004, 0.003110156904558658, -0.12379264380792869, 0.07702034638420563, 0.16135551007979437, 0.09831442636451611, -0.055286001905234104, -0.10673506218400894, 0.07729454552214939, -0.013706445946075152, 0.1636452580363191, -0.052622509938508824, -0.16694339508597406, -0.2305604684947157, -0.04251070035422478, -0.09149385700702244, -0.12969059003343827, 0.1546383275631885, 0.0829546666351089, -0.0037805575000922167, -0.020336527045300257, 0.1296799183779932, -0.08128523208305062, -0.15128590774132292, -0.2099927098891311], [-0.02809660478303159, 0.016254980131224478, -0.03615822399932375, -0.14713798835783362, -0.08558353180265066, -0.08505250592398862, -0.08736722966453966, 0.08440409211182084, -0.048830359939431946, -0.1039816091360304, 0.22997736313296827, -0.10361778031165624, -0.03480183796145591, -0.1741414060528341, -0.09283232166583122, -0.02460159604338145, -0.052781494369822095, 0.005892793883750702, 0.07750531363232692, 0.03319847186203696, 0.15449809242696913, 0.016417779361423166, 0.16028704390794069, 0.09482766429335045, -0.024664405248152332], [0.007154475263930319, -0.15727829235955615, -0.05275167451476602, -0.04657640985311131, -0.12538810444349996, -0.020362546808685055, -0.047048785270101603, -0.13034402814863505, -0.21677587909463839, -0.03399804641214415, 0.02574052840960608, -0.04396171044091162, -0.013334927923684622, 0.02735916146230671, 0.08880044503554567, 0.27771369930014933, 0.02658937929802099, -0.03491406334392652, 0.1915701100133637, 0.019162780344235682, -0.05503929634723282, 0.11165696790136805, 0.020743165875189654, 0.08505230442703318, 0.03440691835735945], [-0.005853202106710264, 0.05168966386550298, 0.09902641623851767, -0.0157049871739438, 0.041724847887814415, 0.12784606216459996, 0.07532062290812552, -0.0313604916351243, -0.14665065586724207, 0.0937283397265041, 0.12754276930163896, 0.07038197087758007, 0.00652475190027461, -0.040970187691646676, 0.12938843353830023, 0.11344634818866482, 0.015309159163689036, -0.023295220368946355, -0.12888905365822495, 0.045705323102689044, 0.11690032133504903, -0.025138884613805163, -0.1398875604810924, 0.1379137565066686, -0.09617977370842777], [0.16950098598906654, 0.05346021853560599, -0.07108568953564467, 0.0624956656023605, -0.07458718162499865, -0.05158395288049201, 0.05297573000835433, 0.04408155631222622, 0.12569804068954835, 0.12415108052481111, -0.006425336161013056, -0.14058949827710115, -0.0530975459685838, 0.009555152362663868, -0.14611312694527814, 0.0645372448663867, 0.0842836694755376, 0.021976035535330885, 0.04513602944297896, -0.09702670159060503, -0.031018628407746555, 0.13260651809077337, 0.03641126393307989, -0.0015873230753439488, 0.04593856079784302], [-0.10627909633672605, -0.1656868137385031, 0.13169051567357354, 0.10185849136672682, 0.019233230838760492, -0.047662563717338124, -0.10060563872743924, -0.12399626395489836, -0.05319875418267849, 0.014801836282742861, -0.038597508042972885, -0.011427538418018494, 0.04356009190686905, 0.16386551180896872, -0.03727454826717078, -0.010595072182322753, -0.035531560600665486, -0.08264796172445985, 0.054220121263011, -0.08300539405782116, 0.26333307095436226, -0.027335072985119137, -0.11872971083569485, 0.01985051589179925, 0.11721594056733994], [0.08146861146391063, 0.08105877299899629, -0.0970567958115126, -0.009470137153165335, 0.12113836610426694, 0.031864719487690714, -0.05374178778523058, -0.09736729235937384, -0.014451442815488599, -0.20207970532341557, 0.17897262997235838, 0.09222880287226953, 0.11340674447974441, -0.043202417356100496, -0.0098994436217155, -0.02832990598135171, -0.003284239524812302, 0.021569360672200465, -0.08045132499259405, 0.12515862981321627, -0.012242220834934245, -0.09242755937779605, 0.06294989565794001, 0.02216997280576709, 0.12890010268352722], [0.0955201577632001, -0.04352872431243057, 0.005837944128475838, 0.09872392329722567, 0.011992428443980708, -0.04003056680086106, 0.13946597238571115, 0.11234560563140007, 0.08281332063744941, 0.11231976002683239, -0.20990767097358404, -0.1758565409112782, 0.048894967972555894, 0.06456629045862508, -0.007339982870001298, -0.11994093469554694, 0.05444366877848682, -0.008038263478651001, -0.011487551506891158, -0.13179339759285022, -0.0842254734953386, -0.0430344057702705, 0.010653358590637424, 0.19068068884850042, 0.07036121488954201], [0.07662963213530077, -0.26130206775330966, 0.01957147003208999, 0.19950352860103232, -0.19324620971758105, -0.016604425523448898, -0.061315032178016086, 0.2861443903194076, -0.12196963325885234, 0.03620948464088059, 0.019459987488731383, -0.16261716148842156, 0.05416646738346867, -0.02797552942275323, 0.06160501864279227, 0.1687437993720046, -0.1939844197940345, 0.13103577267207359, 0.19265387451443944, 0.11667414647671102, -0.1931644185991009, -0.05982076140919415, 0.09680583965990112, 0.08199411995191196, -0.009233127073742995], [-0.024337265436511612, 0.14359806459093327, 0.021218338609541747, -0.05912866490061791, -0.011170572749983952, 0.13112461716303392, -0.07072205184638802, 0.03685556531604061, 0.20048787672567495, -0.05796634717212314, -0.04030495402273797, -0.010583025171294873, 0.04297773611304896, 0.12119639376131248, -0.15564196994623794, -0.020060141684030214, -0.07968332722145818, 0.07645927345615632, 0.14007617217289983, -0.06742569832513912, -0.24852012941012902, 0.07775039034384529, -0.047700888591554934, 0.0513684737212914, -0.04444841323605921], [-0.04325956865083628, -0.011754988180692967, 0.16735334199079027, -0.1821258015137561, 0.10153813743234882, -0.02091790100751706, -0.11665121580953301, 0.07720264002535361, 0.04403300056435787, 0.006695269736486265, -0.03184164197701712, -0.14062049602364343, -0.0485151803048583, 0.07701295998957555, -0.04279127069621145, -0.03798916726686526, -0.008363476180860082, 0.049593602636064354, 0.01630987710994742, -0.013134189438870158, 0.022596414243592454, 0.0026941834491566313, -0.07306318798200603, -0.005077604623208382, -0.1359753660302277], [-0.03377192297968641, -0.0057980701413395536, 0.06093271494048409, -0.07857426028427353, -0.014672699477889767, 0.012290827736419168, -0.0515197989882751, -0.19438124145589028, -0.04057394226698173, 0.09829063248993733, -0.167634104328166, -0.08421075551586522, -0.15635092670925943, 0.0421625288449716, 0.047720013476009064, -0.09461639478831153, 0.017403259905059035, 0.13525135370124858, -0.21216009417214513, 0.016386895375071348, 0.10931175903480067, 0.07416208545835415, 0.10856631896376168, -0.04951900071880271, 0.045236123707096385], [-0.14363310991826247, -0.12286397516062465, 0.008164734975284147, 0.034786568142445316, -0.1452976243154685, 0.1622864288182433, 0.027674997981787127, -0.09739146758750736, 0.25483203371332575, -0.1044888517274532, -0.009052770545905319, 0.09155759923455413, 0.23105400204815382, 0.02048740355369883, -0.010376897188067306, 0.027732297689682474, -0.12214613085738421, 0.08048219529253593, 0.029474831996411814, -0.04433156270773504, -0.2325102491158783, 0.18683872004574123, -0.1321611770945118, -0.07361694279555592, 0.04114560527114724], [0.021444163691104284, -0.14285850077844703, -0.015581665514482687, -0.0503873317011581, 0.015237603231354027, -0.016869931808352476, -0.03421881124265818, 0.026595531766043106, -0.018707257822776206, -0.03313529156055367, 0.02931466171741037, -0.06311739452290423, 0.013703357533822388, -0.05669584117675529, -0.011314629932503704, -0.1626501293006431, 0.1681851196510261, -0.012799882908200054, -0.08953432788006885, -0.06478330996015025, -0.05710678758829096, -0.06481466497120289, -0.01483133443302387, 0.04890630621868954, 0.08949748644788841], [0.03477486293744628, -0.06539802430805051, -0.015778998488077504, 0.010943063325263389, -0.016356979748137213, -0.03685443269273806, 0.10555246139972212, -0.0794939031409465, -0.005533125108742727, 0.006989569215201399, -0.13630735983656497, 0.05448028503011096, 0.05134853167565906, -0.011473389405055455, 0.07270139023541984, -0.16246165323301043, -0.07702376189157553, -0.05909233235293727, -0.023821129855848222, 0.06702398953347503, 0.05363914008188755, -0.06536288831053677, -0.16185473853746588, -0.20274622380158835, 0.15893021615031472], [-0.04730125154933547, 0.03766524916966081, -0.12601063609149948, 0.01515695037572227, 0.026651258925408504, -0.07988326119124632, -0.08739901560874505, -0.039293566713281415, -0.19561298440061944, -0.030640559610552082, -0.058160546221057874, -0.049516453363768184, -0.10319006537426045, 0.047118352845603666, -0.0882588347366604, -0.030053585848363196, 0.06258289177888812, -0.1052585555143776, -0.11345730569751618, 0.21708091881254726, 0.024950389680043067, 0.04984589526532198, 0.039800451443965115, 0.11452046348575291, -0.006276151320704147], [-0.043322598834796826, -0.029977560092317265, -0.21476196649255253, 0.09974690371626997, -0.1606913427693409, -0.024352202555791014, -0.13800756399159053, -0.06002931472965522, -0.03558200493654946, -0.014339835542965161, -0.015037993133730183, 0.08484143809012083, 0.05439160705967709, 0.06932441872204176, -0.08399785945158368, -0.1060821181274368, 0.023618927787099824, -0.09525131767033305, -0.04047412896899875, 0.06088849032700578, -0.0728770769091911, -0.002108669784750125, -0.14242585057700136, 0.15366584591984278, -0.02581038035606772], [-0.0009621376498301567, 0.062255872009825124, -0.046181411006329984, 0.15764956353871284, 0.03188892864873778, 0.0343400438681544, 0.12850581895076893, 0.08308259348863634, 0.1060090949194578, 0.07564625345417378, 0.013543782998991552, 0.08487095858953701, -0.13702161192541013, -0.18685942381310744, -0.0031811480560998075, -0.004720371027606227, 0.03671717071541324, -0.04967891966586905, 0.1774334238420258, 0.05801920492608873, 0.014118517762595333, -0.11678573355999707, 0.033239122012512425, 0.14182519383688028, -0.05456047895411151], [-0.06940087364225508, 0.06512360137630595, -0.1351710338922122, 0.014085283048528642, 0.036916320967242906, -0.2458343041907682, 0.20612630510766689, -0.11415987067807343, -0.11667172375965662, 0.06517235104454054, -0.014562779244063045, -0.2013107052818996, 0.148677602366797, 0.09547556361580448, -0.182642127622902, -0.040112391449992436, 0.016449956443810893, -0.07004612638323028, 0.03301396952250177, -0.002298285868938482, 0.05903644283568995, -0.2126126781588224, 0.09395503504003594, 0.2547759605269005, -0.06360754986039473], [-0.1387968352239082, -0.0716999918088342, -0.029459248511678728, 0.06650939307432426, 0.08231240060808884, -0.1414149884322925, 0.1494270834306401, 0.06517179849530445, 0.010483498730813052, -0.08413663620880737, -0.09366590697861069, 0.007215137190056157, 0.04169037388343151, -0.06279911101976321, 0.00873098823756229, 0.21021663807424468, 0.09314407816568375, -0.200700383132521, -0.09356097502560777, 0.05784322051175874, 0.024639917815703048, -0.08453334924468868, -0.0933653986313261, 0.16493926265311515, 0.07726505991836728], [-0.08055243408865177, -0.2005167867005317, 0.0016659097757567463, 0.015578009681357457, 0.2623738963299192, 0.027113211004354563, -0.06572805313085059, 0.02874132665340027, 0.04487795335897568, 0.028385744858074487, -0.06500664917310775, -0.04286767872011185, 0.02154355342014007, -0.06582569613409095, 0.05627731233979736, -0.09769076767836551, 0.22815592895158215, -0.04266928383812792, -0.13697583354341766, 0.035483065462560935, -0.026549896710231044, 0.0026459510779123447, 0.08782492328046368, 0.05436210585163937, 0.15180498551297247], [0.09957709356491166, 0.06636482420138777, 0.12116805995448444, -0.18774044231068587, 0.05736135121786279, 0.07189816894968838, 0.18131184066021136, 0.09105020203543075, 0.019742795337872265, 0.1544512031338439, -0.02819543705454938, 0.03096288346776838, 0.09668294363011395, -0.07732526515439021, 0.05573505225889591, -0.12893861225868844, 0.054674292428774356, 0.03218621331869716, -0.09189002711421428, 0.004561315074192199, -0.15563442983952264, 0.15639968328010304, 0.10688807012382684, 0.08040486186177792, -0.01772758543179306], [-0.06727515804343216, 0.08600843418029441, 0.11119041879152526, 0.0305441129224486, -0.103210659405082, 0.10857351147946662, -0.3832183843243399, 0.0974760284379987, 0.00221330635101912, 0.136247081073327, -0.09167229741951964, 0.039696091045172056, 0.039421176553693926, 0.0467060871818826, 0.11194706576394302, -0.16159633722276778, 0.02153320060200207, 0.11727626352387949, 0.19502855015822443, -0.11599637375367962, 0.012269462923167504, 0.06980166727143543, 0.15183769087953267, -0.12128545185926973, -0.10709046569413389], [0.12051890827126967, 0.06887795109567935, -0.14814539063721147, 0.039198593274774436, 0.05739624251374071, -0.09294649129172423, 0.16701208064400896, -0.0896446778856324, -0.009400864580003738, -0.12123533703636845, 0.11302500572940365, -0.1437254516931117, 0.12925005075357165, -0.05776580134556339, -0.08725916598902439, -0.15244446285805527, 0.07342118237648332, 0.09337104375698578, 0.09908441577074573, 0.19223710910651798, -0.10395567897292558, 0.06927436988502315, 0.16448632651514822, -0.03539462705736171, -0.019286111429084592], [0.06294099814807905, 0.07505510833565127, -0.09702592694140812, 0.016065990842652124, -0.0058711795278437165, -0.007056715387074357, -0.08761417170041769, 0.24699901436468263, -0.01677452828456056, -0.08187169209794541, 0.06533205162043991, 0.2346416245014523, -0.11817283351715742, 0.08848387028534778, 0.08531421363861208, 0.004642307949686119, -0.08164085664167907, 0.07648437405698294, -0.023038360410912794, -0.037773368661014474, -0.07640201655929194, -0.14290701962007873, 0.002373015444463058, -0.05746649688743752, -0.13282659901044588]], "biases": [[8.673617379884014e-19, 8.673617379884014e-19, 8.673617379884014e-19, 8.673617379884014e-19, 8.673617379884014e-19, 8.673617379884014e-19, 8.673617379884014e-19, 8.673617379884014e-19, 8.673617379884014e-19, 8.673617379884014e-19, 8.673617379884014e-19, 8.673617379884014e-19, 8.673617379884014e-19, 8.673617379884014e-19, 8.673617379884014e-19, 8.673617379884014e-19, 8.673617379884014e-19, 8.673617379884014e-19, 8.673617379884014e-19, 8.673617379884014e-19, 8.673617379884014e-19, 8.673617379884014e-19, 8.673617379884014e-19, 8.673617379884014e-19, 8.673617379884014e-19]], "n_inputs": 25, "n_neurons": 25}, "layer_2": {"activator": "softmax", "weights": [[-0.09739470147334577, -0.02466664850561026, 0.0686807171935603, -0.01861035503507565, 0.14993554689796748, 0.0060644791480474105, -0.07093353051510966, 0.03576280869332246, 0.08392000436872805, -0.11540221790348222, -0.07364634899815867, -0.040764813746478994, -0.030003599716633585, -0.17045211971105362, -0.01872652063504368, 0.09773779809620953, -0.023788685644920874, 0.061968723267221484, 0.08958995630266478, 0.13725126347491387, -0.21240699719647577, -0.1629823043775359, -0.05779550098778082, 0.04925637129868686, -0.14364689377129242], [0.01660536845117487, -0.14313139422770088, -0.01411319605808114, -0.0026015195517430775, 0.1590120325453348, 0.00776769798292921, 0.04090719654432246, 0.180267348357403, -0.021222431331725345, 0.03786530081127042, 0.10008759752308716, -0.008064330393245967, 0.0647612258498901, 0.017296662934029195, -0.05890169667200675, -0.01793335156747588, 0.11434897115419877, 0.052690974219222905, 0.09984718886492462, -0.07510174626292387, 0.08343477595188253, -0.14770814435632154, 0.11317703180946068, 0.03059814270090986, 0.14998944289816865], [0.1709084763684384, -0.09689016267225223, -0.038302500332856475, 0.03488417320103587, 0.003508258052398841, 0.15070124469323762, 0.06443802344968676, 0.07427395540539287, 0.02532188641819741, -0.010339265540777628, -0.16237673468206298, -0.00523974001062223, -0.1320137727459124, 0.04608606392864658, -0.27664056680333055, -0.11157304049518738, 0.13377358740869522, -0.06059960731905123, -0.09496633276654814, -0.10230922654633344, -0.010768920628265653, -0.0012461873230479152, -0.053779017167086635, -0.1917060023119044, 0.01895515121080323], [-0.10443187296591858, 0.020315025718008504, 0.09634409595602965, 0.0392494803473448, 0.10164569907749356, -0.04980038000783684, 0.013042769287680925, -0.12487323789913789, -0.06303327367318544, -0.06301597832816058, 0.07927359763831296, 0.0864589063134876, -0.0005363675592250386, -0.06820091548901783, -0.03486409427440169, -0.029553583720618337, 0.11127373369562567, 0.16363167019550653, -0.22132577920042015, 0.12791027381988654, 0.09813489013347482, 0.07664987502484971, -0.0735370298089741, 0.006774166180953459, 0.026501031611851012], [0.12736855960017143, 0.04401329778285826, 0.0302451384239501, -0.041563230219713976, -0.007284064770477817, -0.052825706732549306, 0.0473231662510684, 0.028890889019239325, -0.019062280143480263, 0.09063381397842048, 0.0038304546197033646, 0.02581566178427432, -0.037740362649965754, -0.10761921842685283, 0.06798134897162389, -0.006374133847095155, -0.04727987645226754, -0.02590923448312676, 0.03723953238297052, -0.13113799312760754, -0.008327076439160483, -0.11318288525947501, 0.008112731061064206, -0.04445111786188581, -0.049591807265542784], [-0.06680797494984746, 0.0639717230343156, 0.1931476128507468, 0.05875391454967471, -0.11209754528624967, -0.08218168449532351, -0.04959104664590936, 0.21451080906925363, -0.02740531513929498, -0.009973317097421532, -0.04740561043935703, -0.04107184622562826, -0.005385055960383741, -0.03681266119107509, 0.013131717693401386, 0.11010721176964365, -0.13385004064113143, 0.04992694906534769, -0.07608714536308873, -0.1512264562575322, -0.21182962241488942, -0.05453054665243543, -0.009452266464783633, -0.1803497028023566, 0.09463962001309961], [0.027997796476715832, -0.06386024342220722, 0.08319543139083113, 0.07384343759631402, 0.08023529051813336, -0.008225885536134885, 0.06159253402008408, 0.13690275075343578, -0.06174376760176879, -0.06151923712986871, 0.08346866175600573, -0.014985747102876352, 0.11633631081034962, 0.06490214935107495, -0.06072661829168068, 0.0766862375892437, -0.1205459642653151, 0.02017763328688185, -0.14680761351005547, -0.01511688075647012, 0.007644556672985632, -0.020779330912440285, -0.1930498220757101, 0.16980528064514236, 0.05537130949187442], [-0.07794631949964217, -0.14335511942062595, -0.11495468412453197, -0.1795808956841029, 0.04468446119365866, 0.08862482753691367, 0.03471468419210593, 0.037970778198845756, 0.13431378856792353, -0.16877552604867968, 0.012873822756340522, 0.03188802366867384, 0.04184968782354648, -0.025640021901314574, -0.10819416012719604, -0.045220147240562475, 0.013608437757847439, 0.0687865110158566, 0.013223569815197735, -0.20269345306481462, -0.0637123341195485, -0.037629230718433423, 0.1129776273169506, 0.08068815869187929, -0.08734908888243635], [-0.04498616376439778, 0.061462882457435565, 0.08519038493006935, -0.008628674748660997, -0.0056835147336465035, 0.027845992127392763, 0.24299693831186833, -0.001584327933852419, -0.042246891331990485, 0.015767761196609175, -0.13714466609906967, 0.024057419872113947, 0.03477364386042483, -0.08495799492565513, -0.050442340639447, -0.12363990365636524, 0.07650295777895322, 0.07756681543727524, -0.1575434395291712, -0.010075569638321399, 0.07243721678412242, 0.06769472108559282, -0.02132141094406195, 0.02505928885743746, -0.004014402787809513], [-0.12655253949125436, -0.10828441116721112, -0.038062691449726724, 0.025759291221048447, 0.06271100064114389, -0.0739597072076961, 0.18252293957408622, 0.07910385839853472, -0.14822505819937234, 0.17842038027279142, -0.012823081421761463, 0.17619775297828197, 0.04166676744232681, -0.0921264468586706, -0.06735802056071769, 0.053558778843064626, 0.15417554606089612, -0.032605870731279386, -0.17895783137788873, 0.1412195258008661, 0.038396766408281297, -0.05150095451949536, -0.026438466929217527, 0.10482023266763381, 0.0036437408236377946], [0.06076224684750009, 0.0051541539207983975, 0.06308266383911547, 0.010110092966391043, 0.08201468615760502, 0.0006384221260717106, 0.08324611048364744, 0.08021130911324191, 0.0702001711968643, -0.053121959477716856, -0.06773014376734202, 0.026759220476227873, -0.031958842222008045, -0.05089279075915718, 0.041745062955037285, 0.01871053069762384, -0.013422993140747094, -0.023926323743628762, -0.12297639273432699, 0.05031884740655747, -0.0574787092734713, 0.06511699301323416, 0.12260037475128086, 0.04999700678391383, 6.765437678045311e-05], [-0.047071987092527294, 0.0510107489763381, -0.04537346294044729, 0.11123264936407859, 0.024375070711409496, -0.019407017286564403, 0.08499925987184749, -0.13561279316457076, 0.016694039529251373, -0.04220166623028764, -0.12060262043235373, 0.10056367310615777, 0.06951191320908222, 0.11187332059876175, 0.0733317253127959, 0.05776767913423843, -0.05256721849389515, 0.09143770919982798, -0.0012933987565848537, -0.06231750811058759, -0.16058473679049404, 0.09984536909092562, 0.08750624345284133, 0.0434908989099567, 0.01743293856393134], [-0.04449843973623757, 0.10144140126129246, -0.05729610514637736, 0.08792588677606031, 0.08313636255528072, 0.1208070844555658, 0.01624250695100088, -0.0704087681801969, -0.062214363526487564, 0.16450095555895908, -0.03918757801417562, -0.022030711452666798, 0.14542910594700825, -0.16338526016184618, 0.18142489826267832, 0.03382067484287139, 0.0814884511251132, 0.038947439441372, 0.16232897388598844, -0.10654501593910419, 0.08944284824524888, -0.18674387273367354, -0.10568517111371618, -0.01304068813667558, -0.16183704612058641], [0.03860766849100739, 0.03172372241554809, -0.106771304085311, -0.12557275885162208, 0.02517359781188834, 0.0968613366391763, -0.1101662711033377, -0.033438940938056536, -0.05834429103584803, -0.14574719511839046, -0.0723442500433012, -0.057352526077475215, -0.03635412086339069, 0.19719391978324813, -0.023225936059534356, 0.13544646069000413, 0.016539450371494006, -0.03961302522479622, 0.05659215990927486, -0.08736399709607165, 0.053785986908669065, -0.22421455371629478, 0.07356129921277064, -0.10020836038965669, 0.010320823119648511], [0.10714861832092398, 0.03460177375585184, -0.057214148792056205, 0.10569676309766717, -0.009447252815446887, 0.14868025736537968, -0.14680310013283124, 0.16513980234460096, -0.014193861023590276, 0.08353510369000076, -0.09689300860416021, 0.03673099797228881, 0.04512007769580904, 0.13493950459168483, 0.06135322285942779, -0.1361466314430563, -0.23744056790229937, 0.02129645449460784, 0.12930138749655262, -0.19620276461060301, 0.07721935876615466, -0.16003023472789926, -0.11387361144801161, 0.038580129611152175, -0.020665935150936662], [0.24380856920964972, 0.020949946866441447, 0.1117137521949699, -0.10055932682704415, 0.038965369291556085, 0.001687460011226353, 0.16803575036885535, 0.004962959679086588, -0.012527733916068338, -0.1515816045068666, -0.014371145482287894, -0.06794730669703916, 0.18960707314032568, 0.029894148712857036, -0.016714986554412843, -0.08242017014947045, 0.007696236337210081, 0.012136017014307575, -0.007307160827389386, -0.0841589885317511, -0.06230495982804085, -0.07961644606947052, 0.1346252057782146, 0.1727835702963156, 0.00043980078663491406], [-0.07682096466615988, -0.0229420095809842, 0.01922875660359798, -0.07838975315602678, -0.09087936576537668, -0.041217959929754786, -0.06490185111526964, 0.012074980774775543, -0.051528359965340984, 0.15587028184830293, -0.04395684574292565, -0.04670428219851238, -0.019061425989634433, 0.17589666672924678, 0.06660431585707893, 0.1552923968066904, -0.055849826465545614, -0.0734420125980008, -0.15284152254460573, -0.1660657795321871, 0.0012643963998857214, -0.11578946508680736, 0.02417476877480106, -0.00917609645731817, -0.02968063623415475], [0.1221536416095609, 0.06276066642293421, -0.03491171473561489, 0.058822406108003315, 0.039538576218305345, 0.015072921752253627, -0.054635068543067336, 0.20909760488456625, 0.0795075748928513, -0.09521801832605654, 0.10027347995005483, 0.06641091532827688, -0.1666256667540381, -0.134229910398806, 0.04999286617590475, -0.07623313011973712, -0.09620469763540077, -0.06169333689500433, 0.12796768825717314, 0.10580077522279525, 0.04425679386761854, -0.09713435745367562, 0.06011862201559627, -0.013884751989791583, -0.14296846000446026], [-0.01922432953443939, -0.14743974903259366, 0.05416448012526192, 0.039988865275227915, -0.09388448156334693, 0.06551629770108157, 0.03106700211372759, -0.020188924662449016, -0.04918795175540152, 0.10429647099898431, -0.014207000408622472, -0.12614988895164364, -0.04568916471316618, -0.23188687812069678, -0.019434045495709016, -0.09546584269268071, -0.09693688948919331, -0.06949620296958141, 0.14303434682626034, 0.15651390999244272, -0.261813845129978, -0.11964187864765231, -0.01301439653565119, 0.048873957244258574, -0.03845723641251351], [-0.02838684539476191, 0.09096079666228135, -0.03334360344791719, 0.10071577270624012, -0.09857177786319511, -0.06003806906735431, 0.08836685683289837, 0.04951556535133002, 0.19333723245312745, -0.07214417498504028, -0.12328772334343231, -0.026247414529916684, 0.10049990671673359, -0.04933473376075781, -0.07762689432211019, 0.15297649493198212, -0.04522528821416676, -0.02298212752932758, 0.10661852289684241, 0.08244868556487481, 0.12768448588885717, 0.02149319661494014, 0.005847554540098598, -0.10088500052771449, -0.10532259495453922], [-0.07714033635227552, -0.20903939311261543, -0.04797768111188348, -0.123515131873231, -0.008877216115546012, 0.04518733124864175, -0.1211891514790582, -0.17934580645844098, -0.04191976519663271, -0.043963862437581255, -0.17012064938943972, 0.05622401503405514, -0.06258987604688575, -0.08927940450268801, -0.04774059602590091, -0.03134360446488874, 0.03096468423893986, 0.16310258389256, -0.03686535163615926, -0.15941258757419888, -0.08820486975259723, -0.0008629153337785606, -0.10823526830536032, -0.1274059108134787, 0.06347759653341625], [-0.18047757865787406, -0.11519835348459861, 0.290837076502139, -0.03893650652771911, -0.09812069644988605, -0.02661557110118555, 0.25853122180571547, -0.10047325650421438, -0.010844033581855234, -0.11857060173513803, -0.06610580299338259, -0.08769072861731841, 0.11187523561183424, -0.01704139378571656, 0.07902426973431091, 0.19003502002099082, -0.10026222410617072, 0.00027349669484285374, 0.13486583724358223, -0.06786895098069362, 0.21545812285157206, -0.29154934315447006, -0.02753495274770558, 0.011850003485092932, -0.08199323132797946], [-0.05637154421270468, -0.12932473157284616, -0.17172437811668326, -0.02999947811470101, 0.06415155071917565, 0.0013723842164576814, -0.06479552496232882, -0.01780426579928571, 0.06054946215810196, 0.0023374117725050467, 0.02088882670766738, 0.1710494570536105, 0.06852114053441005, 0.09179987482173989, -0.22516488313708438, 0.09071863255360459, 0.015517905823189513, -0.14347794044217962, 0.04109800543784656, 0.09880173753557332, -0.07652390371759196, -0.223869563982937, -0.07856863432862375, -0.10893115592974614, -0.08272316585671247], [-0.023101371759584544, -0.02823142547278651, 0.2479497490304308, -0.08068026214705684, -0.03316042435816395, -0.013981211836219126, 0.09216129616716347, -0.010069778497400778, -0.05139985976897151, 0.039295034221981356, 0.041669481019978104, -0.040846733355938136, -0.03866091679440838, -0.018249615687804893, 0.11185422427899894, 0.11923897503913332, -0.03393272704129226, 0.03628076966522265, -0.006958559602237927, 0.004736274359915168, 0.06706415682655106, 0.082011401953281, 0.014792187060566411, -0.10622657744434455, -0.06896516499988953], [-0.048448389334278, 0.13575650142453222, -0.06700688955334654, 0.03541285673056519, -0.045518890400549274, 0.06024928635586468, 0.012818512454649374, 0.03664602371838755, 0.02294511963799026, -0.016516676578707996, -0.10290783287930036, -0.21403726885400565, -0.012584712926265467, 0.009767940832556492, 0.04905861095595434, 0.09551569076304628, -0.16927988372045816, -0.0767434332211782, 0.003843203001709713, -0.052752417999848554, -0.08565689933527361, 0.103906709459417, 0.02388922542810422, -0.09042361026356731, 0.12360123398687178]], "biases": [[8.673617379884014e-19, 8.673617379884014e-19, 8.673617379884014e-19, 8.673617379884014e-19, 8.673617379884014e-19, 8.673617379884014e-19, 8.673617379884014e-19, 8.673617379884014e-19, 8.673617379884014e-19, 8.673617379884014e-19, 8.673617379884014e-19, 8.673617379884014e-19, 8.673617379884014e-19, 8.673617379884014e-19, 8.673617379884014e-19, 8.673617379884014e-19, 8.673617379884014e-19, 8.673617379884014e-19, 8.673617379884014e-19, 8.673617379884014e-19, 8.673617379884014e-19, 8.673617379884014e-19, 8.673617379884014e-19, 8.673617379884014e-19, 8.673617379884014e-19]], "n_inputs": 25, "n_neurons": 25}}